<?xml version="1.0"?>
<opencv_storage>
<!-- Automatically converted from Data, window size = 40x40 -->
<Ball type_id="opencv-haar-classifier">
  <size>
    40 40</size>
  <stages>
    <_>
      <!-- stage 0 -->
      <trees>
        <_>
          <!-- tree 0 -->
          <_>
            <!-- root node -->
            <feature>
              <rects>
                <_>
                  0 28 10 12 -1.</_>
                <_>
                  5 28 5 12 2.</_></rects>
              <tilted>0</tilted></feature>
            <threshold>-2.1041069179773331e-02</threshold>
            <left_val>9.0915298461914062e-01</left_val>
            <right_val>-8.3676010370254517e-01</right_val></_></_>
        <_>
          <!-- tree 1 -->
          <_>
            <!-- root node -->
            <feature>
              <rects>
                <_>
                  36 37 2 2 -1.</_>
                <_>
                  36 37 1 2 2.</_></rects>
              <tilted>0</tilted></feature>
            <threshold>-1.8586670194054022e-05</threshold>
            <left_val>5.4267829656600952e-01</left_val>
            <right_val>-4.5119640231132507e-01</right_val></_></_>
        <_>
          <!-- tree 2 -->
          <_>
            <!-- root node -->
            <feature>
              <rects>
                <_>
                  0 14 2 4 -1.</_>
                <_>
                  0 14 1 2 2.</_>
                <_>
                  1 16 1 2 2.</_></rects>
              <tilted>0</tilted></feature>
            <threshold>-1.4942789675842505e-05</threshold>
            <left_val>6.0749292373657227e-01</left_val>
            <right_val>-8.2727921009063721e-01</right_val></_></_></trees>
      <stage_threshold>-1.1213610172271729e+00</stage_threshold>
      <parent>-1</parent>
      <next>-1</next></_>
    <_>
      <!-- stage 1 -->
      <trees>
        <_>
          <!-- tree 0 -->
          <_>
            <!-- root node -->
            <feature>
              <rects>
                <_>
                  4 0 29 36 -1.</_>
                <_>
                  4 18 29 18 2.</_></rects>
              <tilted>0</tilted></feature>
            <threshold>-5.2799922227859497e-01</threshold>
            <left_val>8.5307472944259644e-01</left_val>
            <right_val>-8.5946428775787354e-01</right_val></_></_>
        <_>
          <!-- tree 1 -->
          <_>
            <!-- root node -->
            <feature>
              <rects>
                <_>
                  37 38 2 1 -1.</_>
                <_>
                  37 38 1 1 2.</_></rects>
              <tilted>0</tilted></feature>
            <threshold>-1.6971280274447054e-05</threshold>
            <left_val>5.7986491918563843e-01</left_val>
            <right_val>-5.0243407487869263e-01</right_val></_></_>
        <_>
          <!-- tree 2 -->
          <_>
            <!-- root node -->
            <feature>
              <rects>
                <_>
                  0 38 4 2 -1.</_>
                <_>
                  2 38 2 2 2.</_></rects>
              <tilted>0</tilted></feature>
            <threshold>-4.1739418520592153e-05</threshold>
            <left_val>5.4644119739532471e-01</left_val>
            <right_val>-9.9286830425262451e-01</right_val></_></_></trees>
      <stage_threshold>-8.1545722484588623e-01</stage_threshold>
      <parent>0</parent>
      <next>-1</next></_>
    <_>
      <!-- stage 2 -->
      <trees>
        <_>
          <!-- tree 0 -->
          <_>
            <!-- root node -->
            <feature>
              <rects>
                <_>
                  0 38 39 2 -1.</_>
                <_>
                  13 38 13 2 3.</_></rects>
              <tilted>0</tilted></feature>
            <threshold>-2.3656399920582771e-02</threshold>
            <left_val>7.3089218139648438e-01</left_val>
            <right_val>-8.5862618684768677e-01</right_val></_></_>
        <_>
          <!-- tree 1 -->
          <_>
            <!-- root node -->
            <feature>
              <rects>
                <_>
                  35 12 1 2 -1.</_>
                <_>
                  35 13 1 1 2.</_></rects>
              <tilted>0</tilted></feature>
            <threshold>-3.9591919630765915e-05</threshold>
            <left_val>5.6745260953903198e-01</left_val>
            <right_val>-7.1235221624374390e-01</right_val></_></_>
        <_>
          <!-- tree 2 -->
          <_>
            <!-- root node -->
            <feature>
              <rects>
                <_>
                  1 19 9 6 -1.</_>
                <_>
                  4 19 3 6 3.</_></rects>
              <tilted>0</tilted></feature>
            <threshold>-5.5727042490616441e-04</threshold>
            <left_val>4.2865449190139771e-01</left_val>
            <right_val>-9.4244819879531860e-01</right_val></_></_></trees>
      <stage_threshold>-1.1423239707946777e+00</stage_threshold>
      <parent>1</parent>
      <next>-1</next></_>
    <_>
      <!-- stage 3 -->
      <trees>
        <_>
          <!-- tree 0 -->
          <_>
            <!-- root node -->
            <feature>
              <rects>
                <_>
                  6 0 27 36 -1.</_>
                <_>
                  6 18 27 18 2.</_></rects>
              <tilted>0</tilted></feature>
            <threshold>-4.7444841265678406e-01</threshold>
            <left_val>7.8288900852203369e-01</left_val>
            <right_val>-8.7307572364807129e-01</right_val></_></_>
        <_>
          <!-- tree 1 -->
          <_>
            <!-- root node -->
            <feature>
              <rects>
                <_>
                  32 37 2 1 -1.</_>
                <_>
                  32 37 1 1 2.</_></rects>
              <tilted>0</tilted></feature>
            <threshold>-1.8222679500468075e-05</threshold>
            <left_val>5.0109952688217163e-01</left_val>
            <right_val>-5.6736397743225098e-01</right_val></_></_>
        <_>
          <!-- tree 2 -->
          <_>
            <!-- root node -->
            <feature>
              <rects>
                <_>
                  0 30 2 6 -1.</_>
                <_>
                  1 30 1 6 2.</_></rects>
              <tilted>0</tilted></feature>
            <threshold>-2.5836330678430386e-05</threshold>
            <left_val>3.8796308636665344e-01</left_val>
            <right_val>-9.1104757785797119e-01</right_val></_></_>
        <_>
          <!-- tree 3 -->
          <_>
            <!-- root node -->
            <feature>
              <rects>
                <_>
                  26 0 8 8 -1.</_>
                <_>
                  30 0 4 4 2.</_>
                <_>
                  26 4 4 4 2.</_></rects>
              <tilted>0</tilted></feature>
            <threshold>-1.1328520486131310e-03</threshold>
            <left_val>4.2282000184059143e-01</left_val>
            <right_val>-5.1150888204574585e-01</right_val></_></_>
        <_>
          <!-- tree 4 -->
          <_>
            <!-- root node -->
            <feature>
              <rects>
                <_>
                  8 35 2 2 -1.</_>
                <_>
                  8 35 1 1 2.</_>
                <_>
                  9 36 1 1 2.</_></rects>
              <tilted>0</tilted></feature>
            <threshold>1.4712850315845571e-05</threshold>
            <left_val>-6.9968271255493164e-01</left_val>
            <right_val>4.9631619453430176e-01</right_val></_></_></trees>
      <stage_threshold>-1.0676690340042114e+00</stage_threshold>
      <parent>2</parent>
      <next>-1</next></_>
    <_>
      <!-- stage 4 -->
      <trees>
        <_>
          <!-- tree 0 -->
          <_>
            <!-- root node -->
            <feature>
              <rects>
                <_>
                  14 0 7 40 -1.</_>
                <_>
                  14 20 7 20 2.</_></rects>
              <tilted>0</tilted></feature>
            <threshold>-1.4970530569553375e-01</threshold>
            <left_val>8.1340438127517700e-01</left_val>
            <right_val>-8.6580181121826172e-01</right_val></_></_>
        <_>
          <!-- tree 1 -->
          <_>
            <!-- root node -->
            <feature>
              <rects>
                <_>
                  26 36 14 4 -1.</_>
                <_>
                  26 36 7 4 2.</_></rects>
              <tilted>0</tilted></feature>
            <threshold>-1.5985669568181038e-02</threshold>
            <left_val>6.5928381681442261e-01</left_val>
            <right_val>-5.1004528999328613e-01</right_val></_></_>
        <_>
          <!-- tree 2 -->
          <_>
            <!-- root node -->
            <feature>
              <rects>
                <_>
                  5 12 6 27 -1.</_>
                <_>
                  7 12 2 27 3.</_></rects>
              <tilted>0</tilted></feature>
            <threshold>-1.0906889656325802e-04</threshold>
            <left_val>3.8025051355361938e-01</left_val>
            <right_val>-9.2860400676727295e-01</right_val></_></_>
        <_>
          <!-- tree 3 -->
          <_>
            <!-- root node -->
            <feature>
              <rects>
                <_>
                  29 7 6 12 -1.</_>
                <_>
                  32 7 3 6 2.</_>
                <_>
                  29 13 3 6 2.</_></rects>
              <tilted>0</tilted></feature>
            <threshold>-3.2895780168473721e-03</threshold>
            <left_val>-9.8359227180480957e-01</left_val>
            <right_val>4.5017041265964508e-02</right_val></_></_></trees>
      <stage_threshold>-9.5057952404022217e-01</stage_threshold>
      <parent>3</parent>
      <next>-1</next></_>
    <_>
      <!-- stage 5 -->
      <trees>
        <_>
          <!-- tree 0 -->
          <_>
            <!-- root node -->
            <feature>
              <rects>
                <_>
                  3 3 32 18 -1.</_>
                <_>
                  3 12 32 9 2.</_></rects>
              <tilted>0</tilted></feature>
            <threshold>-1.7817050218582153e-01</threshold>
            <left_val>7.4468612670898438e-01</left_val>
            <right_val>-6.8353992700576782e-01</right_val></_></_>
        <_>
          <!-- tree 1 -->
          <_>
            <!-- root node -->
            <feature>
              <rects>
                <_>
                  24 21 1 18 -1.</_>
                <_>
                  24 30 1 9 2.</_></rects>
              <tilted>0</tilted></feature>
            <threshold>-1.8384660361334682e-03</threshold>
            <left_val>3.9495360851287842e-01</left_val>
            <right_val>-6.8578088283538818e-01</right_val></_></_>
        <_>
          <!-- tree 2 -->
          <_>
            <!-- root node -->
            <feature>
              <rects>
                <_>
                  6 0 8 8 -1.</_>
                <_>
                  6 0 4 4 2.</_>
                <_>
                  10 4 4 4 2.</_></rects>
              <tilted>0</tilted></feature>
            <threshold>-9.7222073236480355e-05</threshold>
            <left_val>3.6522090435028076e-01</left_val>
            <right_val>-9.0702629089355469e-01</right_val></_></_></trees>
      <stage_threshold>-1.0040999650955200e+00</stage_threshold>
      <parent>4</parent>
      <next>-1</next></_>
    <_>
      <!-- stage 6 -->
      <trees>
        <_>
          <!-- tree 0 -->
          <_>
            <!-- root node -->
            <feature>
              <rects>
                <_>
                  15 0 10 40 -1.</_>
                <_>
                  15 20 10 20 2.</_></rects>
              <tilted>0</tilted></feature>
            <threshold>-2.2474150359630585e-01</threshold>
            <left_val>6.8751221895217896e-01</left_val>
            <right_val>-7.7640891075134277e-01</right_val></_></_>
        <_>
          <!-- tree 1 -->
          <_>
            <!-- root node -->
            <feature>
              <rects>
                <_>
                  27 20 12 20 -1.</_>
                <_>
                  33 20 6 10 2.</_>
                <_>
                  27 30 6 10 2.</_></rects>
              <tilted>0</tilted></feature>
            <threshold>-1.4675999991595745e-02</threshold>
            <left_val>5.5257409811019897e-01</left_val>
            <right_val>-6.8356138467788696e-01</right_val></_></_>
        <_>
          <!-- tree 2 -->
          <_>
            <!-- root node -->
            <feature>
              <rects>
                <_>
                  1 33 21 7 -1.</_>
                <_>
                  8 33 7 7 3.</_></rects>
              <tilted>0</tilted></feature>
            <threshold>-1.7554299905896187e-02</threshold>
            <left_val>5.4003322124481201e-01</left_val>
            <right_val>-6.4855557680130005e-01</right_val></_></_>
        <_>
          <!-- tree 3 -->
          <_>
            <!-- root node -->
            <feature>
              <rects>
                <_>
                  31 10 6 14 -1.</_>
                <_>
                  34 10 3 7 2.</_>
                <_>
                  31 17 3 7 2.</_></rects>
              <tilted>0</tilted></feature>
            <threshold>1.8142939370591193e-04</threshold>
            <left_val>-3.7025049328804016e-01</left_val>
            <right_val>2.1531589329242706e-01</right_val></_></_>
        <_>
          <!-- tree 4 -->
          <_>
            <!-- root node -->
            <feature>
              <rects>
                <_>
                  6 0 6 2 -1.</_>
                <_>
                  9 0 3 2 2.</_></rects>
              <tilted>0</tilted></feature>
            <threshold>3.6299350904300809e-04</threshold>
            <left_val>3.4358111023902893e-01</left_val>
            <right_val>-9.5843750238418579e-01</right_val></_></_></trees>
      <stage_threshold>-1.5496289730072021e+00</stage_threshold>
      <parent>5</parent>
      <next>-1</next></_>
    <_>
      <!-- stage 7 -->
      <trees>
        <_>
          <!-- tree 0 -->
          <_>
            <!-- root node -->
            <feature>
              <rects>
                <_>
                  0 18 2 18 -1.</_>
                <_>
                  0 18 1 9 2.</_>
                <_>
                  1 27 1 9 2.</_></rects>
              <tilted>0</tilted></feature>
            <threshold>9.6088030841201544e-04</threshold>
            <left_val>-6.7043602466583252e-01</left_val>
            <right_val>7.1427899599075317e-01</right_val></_></_>
        <_>
          <!-- tree 1 -->
          <_>
            <!-- root node -->
            <feature>
              <rects>
                <_>
                  21 21 4 18 -1.</_>
                <_>
                  21 30 4 9 2.</_></rects>
              <tilted>0</tilted></feature>
            <threshold>-1.0623199865221977e-02</threshold>
            <left_val>4.5684361457824707e-01</left_val>
            <right_val>-6.4493548870086670e-01</right_val></_></_>
        <_>
          <!-- tree 2 -->
          <_>
            <!-- root node -->
            <feature>
              <rects>
                <_>
                  2 3 10 8 -1.</_>
                <_>
                  2 3 5 4 2.</_>
                <_>
                  7 7 5 4 2.</_></rects>
              <tilted>0</tilted></feature>
            <threshold>-1.4731499832123518e-03</threshold>
            <left_val>4.4483140110969543e-01</left_val>
            <right_val>-7.4338960647583008e-01</right_val></_></_>
        <_>
          <!-- tree 3 -->
          <_>
            <!-- root node -->
            <feature>
              <rects>
                <_>
                  15 20 15 7 -1.</_>
                <_>
                  20 20 5 7 3.</_></rects>
              <tilted>0</tilted></feature>
            <threshold>2.7985479682683945e-03</threshold>
            <left_val>2.7857550978660583e-01</left_val>
            <right_val>-9.4485127925872803e-01</right_val></_></_></trees>
      <stage_threshold>-7.1361231803894043e-01</stage_threshold>
      <parent>6</parent>
      <next>-1</next></_>
    <_>
      <!-- stage 8 -->
      <trees>
        <_>
          <!-- tree 0 -->
          <_>
            <!-- root node -->
            <feature>
              <rects>
                <_>
                  4 0 32 32 -1.</_>
                <_>
                  4 16 32 16 2.</_></rects>
              <tilted>0</tilted></feature>
            <threshold>-5.2806490659713745e-01</threshold>
            <left_val>7.1278351545333862e-01</left_val>
            <right_val>-6.6236758232116699e-01</right_val></_></_>
        <_>
          <!-- tree 1 -->
          <_>
            <!-- root node -->
            <feature>
              <rects>
                <_>
                  4 39 36 1 -1.</_>
                <_>
                  16 39 12 1 3.</_></rects>
              <tilted>0</tilted></feature>
            <threshold>-1.0349829681217670e-02</threshold>
            <left_val>5.9163391590118408e-01</left_val>
            <right_val>-4.8925471305847168e-01</right_val></_></_>
        <_>
          <!-- tree 2 -->
          <_>
            <!-- root node -->
            <feature>
              <rects>
                <_>
                  2 11 6 12 -1.</_>
                <_>
                  2 11 3 6 2.</_>
                <_>
                  5 17 3 6 2.</_></rects>
              <tilted>0</tilted></feature>
            <threshold>-2.2273909416981041e-04</threshold>
            <left_val>-8.3769422769546509e-01</left_val>
            <right_val>3.6913108825683594e-01</right_val></_></_>
        <_>
          <!-- tree 3 -->
          <_>
            <!-- root node -->
            <feature>
              <rects>
                <_>
                  34 6 4 34 -1.</_>
                <_>
                  36 6 2 17 2.</_>
                <_>
                  34 23 2 17 2.</_></rects>
              <tilted>0</tilted></feature>
            <threshold>-1.5776179498061538e-03</threshold>
            <left_val>3.3103808760643005e-01</left_val>
            <right_val>-5.9242492914199829e-01</right_val></_></_>
        <_>
          <!-- tree 4 -->
          <_>
            <!-- root node -->
            <feature>
              <rects>
                <_>
                  2 6 4 34 -1.</_>
                <_>
                  2 6 2 17 2.</_>
                <_>
                  4 23 2 17 2.</_></rects>
              <tilted>0</tilted></feature>
            <threshold>-2.0584810990840197e-03</threshold>
            <left_val>3.9403489232063293e-01</left_val>
            <right_val>-7.7682358026504517e-01</right_val></_></_></trees>
      <stage_threshold>-1.2282769680023193e+00</stage_threshold>
      <parent>7</parent>
      <next>-1</next></_>
    <_>
      <!-- stage 9 -->
      <trees>
        <_>
          <!-- tree 0 -->
          <_>
            <!-- root node -->
            <feature>
              <rects>
                <_>
                  0 13 4 15 -1.</_>
                <_>
                  2 13 2 15 2.</_></rects>
              <tilted>0</tilted></feature>
            <threshold>-9.6802078187465668e-03</threshold>
            <left_val>6.9355249404907227e-01</left_val>
            <right_val>-6.4337617158889771e-01</right_val></_></_>
        <_>
          <!-- tree 1 -->
          <_>
            <!-- root node -->
            <feature>
              <rects>
                <_>
                  10 1 20 38 -1.</_>
                <_>
                  10 20 20 19 2.</_></rects>
              <tilted>0</tilted></feature>
            <threshold>-4.2782551050186157e-01</threshold>
            <left_val>6.3248062133789062e-01</left_val>
            <right_val>-5.6121528148651123e-01</right_val></_></_>
        <_>
          <!-- tree 2 -->
          <_>
            <!-- root node -->
            <feature>
              <rects>
                <_>
                  9 37 2 3 -1.</_>
                <_>
                  9 38 2 1 3.</_></rects>
              <tilted>0</tilted></feature>
            <threshold>-6.1287209973670542e-05</threshold>
            <left_val>4.6058520674705505e-01</left_val>
            <right_val>-5.9877341985702515e-01</right_val></_></_>
        <_>
          <!-- tree 3 -->
          <_>
            <!-- root node -->
            <feature>
              <rects>
                <_>
                  25 24 1 2 -1.</_>
                <_>
                  25 25 1 1 2.</_></rects>
              <tilted>0</tilted></feature>
            <threshold>-1.6379079170292243e-05</threshold>
            <left_val>2.6172059774398804e-01</left_val>
            <right_val>-5.5373460054397583e-01</right_val></_></_>
        <_>
          <!-- tree 4 -->
          <_>
            <!-- root node -->
            <feature>
              <rects>
                <_>
                  4 25 32 2 -1.</_>
                <_>
                  4 25 16 1 2.</_>
                <_>
                  20 26 16 1 2.</_></rects>
              <tilted>0</tilted></feature>
            <threshold>-2.4087450583465397e-04</threshold>
            <left_val>-9.3689209222793579e-01</left_val>
            <right_val>3.5518941283226013e-01</right_val></_></_></trees>
      <stage_threshold>-1.1864550113677979e+00</stage_threshold>
      <parent>8</parent>
      <next>-1</next></_>
    <_>
      <!-- stage 10 -->
      <trees>
        <_>
          <!-- tree 0 -->
          <_>
            <!-- root node -->
            <feature>
              <rects>
                <_>
                  7 38 6 2 -1.</_>
                <_>
                  10 38 3 2 2.</_></rects>
              <tilted>0</tilted></feature>
            <threshold>-1.1838240316137671e-03</threshold>
            <left_val>5.7322931289672852e-01</left_val>
            <right_val>-7.1834588050842285e-01</right_val></_></_>
        <_>
          <!-- tree 1 -->
          <_>
            <!-- root node -->
            <feature>
              <rects>
                <_>
                  35 12 1 2 -1.</_>
                <_>
                  35 13 1 1 2.</_></rects>
              <tilted>0</tilted></feature>
            <threshold>-2.2678190362057649e-05</threshold>
            <left_val>3.0845141410827637e-01</left_val>
            <right_val>-7.2210097312927246e-01</right_val></_></_>
        <_>
          <!-- tree 2 -->
          <_>
            <!-- root node -->
            <feature>
              <rects>
                <_>
                  8 20 24 3 -1.</_>
                <_>
                  16 20 8 3 3.</_></rects>
              <tilted>0</tilted></feature>
            <threshold>-2.7796360664069653e-03</threshold>
            <left_val>-9.5043957233428955e-01</left_val>
            <right_val>2.5905230641365051e-01</right_val></_></_>
        <_>
          <!-- tree 3 -->
          <_>
            <!-- root node -->
            <feature>
              <rects>
                <_>
                  38 13 2 12 -1.</_>
                <_>
                  39 13 1 6 2.</_>
                <_>
                  38 19 1 6 2.</_></rects>
              <tilted>0</tilted></feature>
            <threshold>-2.1503710013348609e-04</threshold>
            <left_val>4.5543178915977478e-01</left_val>
            <right_val>-7.5308620929718018e-01</right_val></_></_>
        <_>
          <!-- tree 4 -->
          <_>
            <!-- root node -->
            <feature>
              <rects>
                <_>
                  0 13 2 10 -1.</_>
                <_>
                  0 13 1 5 2.</_>
                <_>
                  1 18 1 5 2.</_></rects>
              <tilted>0</tilted></feature>
            <threshold>-3.1088799005374312e-04</threshold>
            <left_val>3.8408139348030090e-01</left_val>
            <right_val>-6.6934198141098022e-01</right_val></_></_>
        <_>
          <!-- tree 5 -->
          <_>
            <!-- root node -->
            <feature>
              <rects>
                <_>
                  19 20 10 8 -1.</_>
                <_>
                  24 20 5 4 2.</_>
                <_>
                  19 24 5 4 2.</_></rects>
              <tilted>0</tilted></feature>
            <threshold>-1.2143900385126472e-03</threshold>
            <left_val>-9.0800648927688599e-01</left_val>
            <right_val>2.5002598762512207e-01</right_val></_></_></trees>
      <stage_threshold>-1.3232439756393433e+00</stage_threshold>
      <parent>9</parent>
      <next>-1</next></_>
    <_>
      <!-- stage 11 -->
      <trees>
        <_>
          <!-- tree 0 -->
          <_>
            <!-- root node -->
            <feature>
              <rects>
                <_>
                  0 3 39 37 -1.</_>
                <_>
                  13 3 13 37 3.</_></rects>
              <tilted>0</tilted></feature>
            <threshold>-2.4884100258350372e-01</threshold>
            <left_val>6.1108309030532837e-01</left_val>
            <right_val>-6.0272330045700073e-01</right_val></_></_>
        <_>
          <!-- tree 1 -->
          <_>
            <!-- root node -->
            <feature>
              <rects>
                <_>
                  27 23 1 2 -1.</_>
                <_>
                  27 24 1 1 2.</_></rects>
              <tilted>0</tilted></feature>
            <threshold>-1.7768019461072981e-05</threshold>
            <left_val>3.5464379191398621e-01</left_val>
            <right_val>-6.6391360759735107e-01</right_val></_></_>
        <_>
          <!-- tree 2 -->
          <_>
            <!-- root node -->
            <feature>
              <rects>
                <_>
                  5 22 26 4 -1.</_>
                <_>
                  5 22 13 2 2.</_>
                <_>
                  18 24 13 2 2.</_></rects>
              <tilted>0</tilted></feature>
            <threshold>-6.1766261933371425e-04</threshold>
            <left_val>-8.4435272216796875e-01</left_val>
            <right_val>3.2815670967102051e-01</right_val></_></_>
        <_>
          <!-- tree 3 -->
          <_>
            <!-- root node -->
            <feature>
              <rects>
                <_>
                  10 0 21 6 -1.</_>
                <_>
                  10 2 21 2 3.</_></rects>
              <tilted>0</tilted></feature>
            <threshold>2.2172899916768074e-03</threshold>
            <left_val>-6.5843158960342407e-01</left_val>
            <right_val>4.4161230325698853e-01</right_val></_></_>
        <_>
          <!-- tree 4 -->
          <_>
            <!-- root node -->
            <feature>
              <rects>
                <_>
                  3 29 2 6 -1.</_>
                <_>
                  3 29 1 3 2.</_>
                <_>
                  4 32 1 3 2.</_></rects>
              <tilted>0</tilted></feature>
            <threshold>3.2455439213663340e-04</threshold>
            <left_val>-4.8433279991149902e-01</left_val>
            <right_val>6.0762441158294678e-01</right_val></_></_>
        <_>
          <!-- tree 5 -->
          <_>
            <!-- root node -->
            <feature>
              <rects>
                <_>
                  30 15 9 4 -1.</_>
                <_>
                  33 15 3 4 3.</_></rects>
              <tilted>0</tilted></feature>
            <threshold>-1.4081000699661672e-04</threshold>
            <left_val>2.9308891296386719e-01</left_val>
            <right_val>-6.6725158691406250e-01</right_val></_></_></trees>
      <stage_threshold>-1.6484520435333252e+00</stage_threshold>
      <parent>10</parent>
      <next>-1</next></_>
    <_>
      <!-- stage 12 -->
      <trees>
        <_>
          <!-- tree 0 -->
          <_>
            <!-- root node -->
            <feature>
              <rects>
                <_>
                  7 0 7 34 -1.</_>
                <_>
                  7 17 7 17 2.</_></rects>
              <tilted>0</tilted></feature>
            <threshold>-1.1970529705286026e-01</threshold>
            <left_val>5.0049567222595215e-01</left_val>
            <right_val>-7.6061481237411499e-01</right_val></_></_>
        <_>
          <!-- tree 1 -->
          <_>
            <!-- root node -->
            <feature>
              <rects>
                <_>
                  26 16 14 24 -1.</_>
                <_>
                  33 16 7 12 2.</_>
                <_>
                  26 28 7 12 2.</_></rects>
              <tilted>0</tilted></feature>
            <threshold>-2.2210270166397095e-02</threshold>
            <left_val>3.9522111415863037e-01</left_val>
            <right_val>-7.2824048995971680e-01</right_val></_></_>
        <_>
          <!-- tree 2 -->
          <_>
            <!-- root node -->
            <feature>
              <rects>
                <_>
                  13 9 3 24 -1.</_>
                <_>
                  13 17 3 8 3.</_></rects>
              <tilted>0</tilted></feature>
            <threshold>-4.8927548341453075e-03</threshold>
            <left_val>-9.1950947046279907e-01</left_val>
            <right_val>2.7467060089111328e-01</right_val></_></_>
        <_>
          <!-- tree 3 -->
          <_>
            <!-- root node -->
            <feature>
              <rects>
                <_>
                  20 34 1 2 -1.</_>
                <_>
                  20 35 1 1 2.</_></rects>
              <tilted>0</tilted></feature>
            <threshold>-1.8748489310382865e-05</threshold>
            <left_val>3.5063278675079346e-01</left_val>
            <right_val>-6.6769808530807495e-01</right_val></_></_>
        <_>
          <!-- tree 4 -->
          <_>
            <!-- root node -->
            <feature>
              <rects>
                <_>
                  1 15 12 2 -1.</_>
                <_>
                  5 15 4 2 3.</_></rects>
              <tilted>0</tilted></feature>
            <threshold>-1.8002139404416084e-04</threshold>
            <left_val>2.9464238882064819e-01</left_val>
            <right_val>-9.1252738237380981e-01</right_val></_></_>
        <_>
          <!-- tree 5 -->
          <_>
            <!-- root node -->
            <feature>
              <rects>
                <_>
                  24 23 2 9 -1.</_>
                <_>
                  24 26 2 3 3.</_></rects>
              <tilted>0</tilted></feature>
            <threshold>-6.7963037872686982e-04</threshold>
            <left_val>-9.8581367731094360e-01</left_val>
            <right_val>7.9450093209743500e-02</right_val></_></_></trees>
      <stage_threshold>-1.5077899694442749e+00</stage_threshold>
      <parent>11</parent>
      <next>-1</next></_>
    <_>
      <!-- stage 13 -->
      <trees>
        <_>
          <!-- tree 0 -->
          <_>
            <!-- root node -->
            <feature>
              <rects>
                <_>
                  14 30 12 6 -1.</_>
                <_>
                  14 33 12 3 2.</_></rects>
              <tilted>0</tilted></feature>
            <threshold>-3.3307839184999466e-03</threshold>
            <left_val>4.4275268912315369e-01</left_val>
            <right_val>-7.7919942140579224e-01</right_val></_></_>
        <_>
          <!-- tree 1 -->
          <_>
            <!-- root node -->
            <feature>
              <rects>
                <_>
                  4 26 32 9 -1.</_>
                <_>
                  4 29 32 3 3.</_></rects>
              <tilted>0</tilted></feature>
            <threshold>-4.0593440644443035e-03</threshold>
            <left_val>4.3449300527572632e-01</left_val>
            <right_val>-7.3600637912750244e-01</right_val></_></_>
        <_>
          <!-- tree 2 -->
          <_>
            <!-- root node -->
            <feature>
              <rects>
                <_>
                  8 27 20 6 -1.</_>
                <_>
                  8 29 20 2 3.</_></rects>
              <tilted>0</tilted></feature>
            <threshold>-1.8647039541974664e-03</threshold>
            <left_val>-9.8717480897903442e-01</left_val>
            <right_val>2.5502771139144897e-01</right_val></_></_>
        <_>
          <!-- tree 3 -->
          <_>
            <!-- root node -->
            <feature>
              <rects>
                <_>
                  35 7 5 9 -1.</_>
                <_>
                  35 10 5 3 3.</_></rects>
              <tilted>0</tilted></feature>
            <threshold>4.4088251888751984e-03</threshold>
            <left_val>6.2052879482507706e-02</left_val>
            <right_val>-1.0000220537185669e+00</right_val></_></_>
        <_>
          <!-- tree 4 -->
          <_>
            <!-- root node -->
            <feature>
              <rects>
                <_>
                  9 1 3 6 -1.</_>
                <_>
                  9 3 3 2 3.</_></rects>
              <tilted>0</tilted></feature>
            <threshold>5.7913467753678560e-04</threshold>
            <left_val>-6.1471468210220337e-01</left_val>
            <right_val>4.5171248912811279e-01</right_val></_></_>
        <_>
          <!-- tree 5 -->
          <_>
            <!-- root node -->
            <feature>
              <rects>
                <_>
                  36 28 3 5 -1.</_>
                <_>
                  37 28 1 5 3.</_></rects>
              <tilted>0</tilted></feature>
            <threshold>2.0723190391436219e-04</threshold>
            <left_val>-6.9379538297653198e-01</left_val>
            <right_val>5.0722712278366089e-01</right_val></_></_>
        <_>
          <!-- tree 6 -->
          <_>
            <!-- root node -->
            <feature>
              <rects>
                <_>
                  3 1 9 17 -1.</_>
                <_>
                  6 1 3 17 3.</_></rects>
              <tilted>0</tilted></feature>
            <threshold>-5.1133390516042709e-03</threshold>
            <left_val>-9.6761399507522583e-01</left_val>
            <right_val>3.2954540848731995e-01</right_val></_></_></trees>
      <stage_threshold>-1.1106630563735962e+00</stage_threshold>
      <parent>12</parent>
      <next>-1</next></_>
    <_>
      <!-- stage 14 -->
      <trees>
        <_>
          <!-- tree 0 -->
          <_>
            <!-- root node -->
            <feature>
              <rects>
                <_>
                  1 27 4 3 -1.</_>
                <_>
                  3 27 2 3 2.</_></rects>
              <tilted>0</tilted></feature>
            <threshold>-2.7839310932904482e-03</threshold>
            <left_val>7.6369482278823853e-01</left_val>
            <right_val>-5.7826691865921021e-01</right_val></_></_>
        <_>
          <!-- tree 1 -->
          <_>
            <!-- root node -->
            <feature>
              <rects>
                <_>
                  21 16 4 2 -1.</_>
                <_>
                  21 17 4 1 2.</_></rects>
              <tilted>0</tilted></feature>
            <threshold>-1.1865080159623176e-04</threshold>
            <left_val>3.4216710925102234e-01</left_val>
            <right_val>-5.2352821826934814e-01</right_val></_></_>
        <_>
          <!-- tree 2 -->
          <_>
            <!-- root node -->
            <feature>
              <rects>
                <_>
                  0 3 4 4 -1.</_>
                <_>
                  2 3 2 4 2.</_></rects>
              <tilted>0</tilted></feature>
            <threshold>3.2241491135209799e-04</threshold>
            <left_val>3.0134698748588562e-01</left_val>
            <right_val>-9.9999868869781494e-01</right_val></_></_>
        <_>
          <!-- tree 3 -->
          <_>
            <!-- root node -->
            <feature>
              <rects>
                <_>
                  25 0 1 2 -1.</_>
                <_>
                  25 1 1 1 2.</_></rects>
              <tilted>0</tilted></feature>
            <threshold>7.4720719567267224e-06</threshold>
            <left_val>-6.0416358709335327e-01</left_val>
            <right_val>3.8260379433631897e-01</right_val></_></_>
        <_>
          <!-- tree 4 -->
          <_>
            <!-- root node -->
            <feature>
              <rects>
                <_>
                  1 6 6 8 -1.</_>
                <_>
                  1 6 3 4 2.</_>
                <_>
                  4 10 3 4 2.</_></rects>
              <tilted>0</tilted></feature>
            <threshold>-1.1116920504719019e-03</threshold>
            <left_val>5.2576720714569092e-01</left_val>
            <right_val>-6.3875341415405273e-01</right_val></_></_></trees>
      <stage_threshold>-1.0565979480743408e+00</stage_threshold>
      <parent>13</parent>
      <next>-1</next></_>
    <_>
      <!-- stage 15 -->
      <trees>
        <_>
          <!-- tree 0 -->
          <_>
            <!-- root node -->
            <feature>
              <rects>
                <_>
                  16 15 1 4 -1.</_>
                <_>
                  16 17 1 2 2.</_></rects>
              <tilted>0</tilted></feature>
            <threshold>-1.5822910063434392e-04</threshold>
            <left_val>5.9918528795242310e-01</left_val>
            <right_val>-7.8114157915115356e-01</right_val></_></_>
        <_>
          <!-- tree 1 -->
          <_>
            <!-- root node -->
            <feature>
              <rects>
                <_>
                  38 3 2 9 -1.</_>
                <_>
                  38 6 2 3 3.</_></rects>
              <tilted>0</tilted></feature>
            <threshold>6.2321760924533010e-04</threshold>
            <left_val>2.4763479828834534e-01</left_val>
            <right_val>-8.8417869806289673e-01</right_val></_></_>
        <_>
          <!-- tree 2 -->
          <_>
            <!-- root node -->
            <feature>
              <rects>
                <_>
                  0 3 2 9 -1.</_>
                <_>
                  0 6 2 3 3.</_></rects>
              <tilted>0</tilted></feature>
            <threshold>4.5908399624750018e-04</threshold>
            <left_val>4.7436299920082092e-01</left_val>
            <right_val>-8.6667132377624512e-01</right_val></_></_>
        <_>
          <!-- tree 3 -->
          <_>
            <!-- root node -->
            <feature>
              <rects>
                <_>
                  33 33 2 2 -1.</_>
                <_>
                  34 33 1 1 2.</_>
                <_>
                  33 34 1 1 2.</_></rects>
              <tilted>0</tilted></feature>
            <threshold>8.2294842286501080e-05</threshold>
            <left_val>-5.5039608478546143e-01</left_val>
            <right_val>6.3770717382431030e-01</right_val></_></_>
        <_>
          <!-- tree 4 -->
          <_>
            <!-- root node -->
            <feature>
              <rects>
                <_>
                  8 18 6 4 -1.</_>
                <_>
                  8 18 3 2 2.</_>
                <_>
                  11 20 3 2 2.</_></rects>
              <tilted>0</tilted></feature>
            <threshold>2.0267259969841689e-04</threshold>
            <left_val>4.9573409557342529e-01</left_val>
            <right_val>-8.4145790338516235e-01</right_val></_></_>
        <_>
          <!-- tree 5 -->
          <_>
            <!-- root node -->
            <feature>
              <rects>
                <_>
                  26 27 8 2 -1.</_>
                <_>
                  26 28 8 1 2.</_></rects>
              <tilted>0</tilted></feature>
            <threshold>-7.8950077295303345e-05</threshold>
            <left_val>2.1997399628162384e-01</left_val>
            <right_val>-5.3453272581100464e-01</right_val></_></_>
        <_>
          <!-- tree 6 -->
          <_>
            <!-- root node -->
            <feature>
              <rects>
                <_>
                  4 9 6 8 -1.</_>
                <_>
                  4 9 3 4 2.</_>
                <_>
                  7 13 3 4 2.</_></rects>
              <tilted>0</tilted></feature>
            <threshold>-5.6795110140228644e-05</threshold>
            <left_val>-7.9130667448043823e-01</left_val>
            <right_val>5.1871651411056519e-01</right_val></_></_></trees>
      <stage_threshold>-1.2614359855651855e+00</stage_threshold>
      <parent>14</parent>
      <next>-1</next></_>
    <_>
      <!-- stage 16 -->
      <trees>
        <_>
          <!-- tree 0 -->
          <_>
            <!-- root node -->
            <feature>
              <rects>
                <_>
                  2 1 15 30 -1.</_>
                <_>
                  2 16 15 15 2.</_></rects>
              <tilted>0</tilted></feature>
            <threshold>-1.9900029897689819e-01</threshold>
            <left_val>8.7846088409423828e-01</left_val>
            <right_val>-7.9095369577407837e-01</right_val></_></_>
        <_>
          <!-- tree 1 -->
          <_>
            <!-- root node -->
            <feature>
              <rects>
                <_>
                  26 24 2 8 -1.</_>
                <_>
                  26 28 2 4 2.</_></rects>
              <tilted>0</tilted></feature>
            <threshold>-5.7302147615700960e-04</threshold>
            <left_val>3.4587529301643372e-01</left_val>
            <right_val>-6.5859001874923706e-01</right_val></_></_>
        <_>
          <!-- tree 2 -->
          <_>
            <!-- root node -->
            <feature>
              <rects>
                <_>
                  0 4 10 21 -1.</_>
                <_>
                  0 11 10 7 3.</_></rects>
              <tilted>0</tilted></feature>
            <threshold>-1.5106789767742157e-02</threshold>
            <left_val>-8.9749962091445923e-01</left_val>
            <right_val>7.2373151779174805e-01</right_val></_></_></trees>
      <stage_threshold>-7.2581231594085693e-01</stage_threshold>
      <parent>15</parent>
      <next>-1</next></_></stages></Ball>
</opencv_storage>
