<?xml version="1.0"?>
<opencv_storage>
<!-- Automatically converted from Data, window size = 40x40 -->
<Ball type_id="opencv-haar-classifier">
  <size>
    40 40</size>
  <stages>
    <_>
      <!-- stage 0 -->
      <trees>
        <_>
          <!-- tree 0 -->
          <_>
            <!-- root node -->
            <feature>
              <rects>
                <_>
                  6 0 28 36 -1.</_>
                <_>
                  6 18 28 18 2.</_></rects>
              <tilted>0</tilted></feature>
            <threshold>-4.9007061123847961e-01</threshold>
            <left_val>9.8295307159423828e-01</left_val>
            <right_val>-8.9622569084167480e-01</right_val></_></_>
        <_>
          <!-- tree 1 -->
          <_>
            <!-- root node -->
            <feature>
              <rects>
                <_>
                  25 20 1 2 -1.</_>
                <_>
                  25 21 1 1 2.</_></rects>
              <tilted>0</tilted></feature>
            <threshold>-1.5815090591786429e-05</threshold>
            <left_val>8.2146477699279785e-01</left_val>
            <right_val>-6.5468132495880127e-01</right_val></_></_>
        <_>
          <!-- tree 2 -->
          <_>
            <!-- root node -->
            <feature>
              <rects>
                <_>
                  0 30 2 6 -1.</_>
                <_>
                  1 30 1 6 2.</_></rects>
              <tilted>0</tilted></feature>
            <threshold>-7.9678648035041988e-06</threshold>
            <left_val>6.5925192832946777e-01</left_val>
            <right_val>-9.3903547525405884e-01</right_val></_></_></trees>
      <stage_threshold>-8.9165508747100830e-01</stage_threshold>
      <parent>-1</parent>
      <next>-1</next></_>
    <_>
      <!-- stage 1 -->
      <trees>
        <_>
          <!-- tree 0 -->
          <_>
            <!-- root node -->
            <feature>
              <rects>
                <_>
                  0 38 39 2 -1.</_>
                <_>
                  13 38 13 2 3.</_></rects>
              <tilted>0</tilted></feature>
            <threshold>-2.2502329200506210e-02</threshold>
            <left_val>9.1757547855377197e-01</left_val>
            <right_val>-8.9289832115173340e-01</right_val></_></_>
        <_>
          <!-- tree 1 -->
          <_>
            <!-- root node -->
            <feature>
              <rects>
                <_>
                  23 16 2 24 -1.</_>
                <_>
                  23 28 2 12 2.</_></rects>
              <tilted>0</tilted></feature>
            <threshold>-7.5948648154735565e-03</threshold>
            <left_val>6.7257791757583618e-01</left_val>
            <right_val>-7.5429791212081909e-01</right_val></_></_>
        <_>
          <!-- tree 2 -->
          <_>
            <!-- root node -->
            <feature>
              <rects>
                <_>
                  0 25 3 12 -1.</_>
                <_>
                  1 25 1 12 3.</_></rects>
              <tilted>0</tilted></feature>
            <threshold>7.0319161750376225e-05</threshold>
            <left_val>-7.9519367218017578e-01</left_val>
            <right_val>6.8436849117279053e-01</right_val></_></_></trees>
      <stage_threshold>-1.0155140161514282e+00</stage_threshold>
      <parent>0</parent>
      <next>-1</next></_>
    <_>
      <!-- stage 2 -->
      <trees>
        <_>
          <!-- tree 0 -->
          <_>
            <!-- root node -->
            <feature>
              <rects>
                <_>
                  1 17 10 22 -1.</_>
                <_>
                  1 17 5 11 2.</_>
                <_>
                  6 28 5 11 2.</_></rects>
              <tilted>0</tilted></feature>
            <threshold>-1.1465770192444324e-02</threshold>
            <left_val>9.1660922765731812e-01</left_val>
            <right_val>-8.7179112434387207e-01</right_val></_></_>
        <_>
          <!-- tree 1 -->
          <_>
            <!-- root node -->
            <feature>
              <rects>
                <_>
                  27 4 12 6 -1.</_>
                <_>
                  33 4 6 3 2.</_>
                <_>
                  27 7 6 3 2.</_></rects>
              <tilted>0</tilted></feature>
            <threshold>-1.8533440306782722e-03</threshold>
            <left_val>8.3905577659606934e-01</left_val>
            <right_val>-6.9226479530334473e-01</right_val></_></_>
        <_>
          <!-- tree 2 -->
          <_>
            <!-- root node -->
            <feature>
              <rects>
                <_>
                  2 1 2 20 -1.</_>
                <_>
                  2 1 1 10 2.</_>
                <_>
                  3 11 1 10 2.</_></rects>
              <tilted>0</tilted></feature>
            <threshold>-2.8384861070662737e-04</threshold>
            <left_val>8.0916440486907959e-01</left_val>
            <right_val>-8.1820380687713623e-01</right_val></_></_></trees>
      <stage_threshold>-8.5093921422958374e-01</stage_threshold>
      <parent>1</parent>
      <next>-1</next></_>
    <_>
      <!-- stage 3 -->
      <trees>
        <_>
          <!-- tree 0 -->
          <_>
            <!-- root node -->
            <feature>
              <rects>
                <_>
                  0 19 2 6 -1.</_>
                <_>
                  1 19 1 6 2.</_></rects>
              <tilted>0</tilted></feature>
            <threshold>-5.8700831141322851e-04</threshold>
            <left_val>8.5986179113388062e-01</left_val>
            <right_val>-8.3654278516769409e-01</right_val></_></_>
        <_>
          <!-- tree 1 -->
          <_>
            <!-- root node -->
            <feature>
              <rects>
                <_>
                  30 22 1 2 -1.</_>
                <_>
                  30 23 1 1 2.</_></rects>
              <tilted>0</tilted></feature>
            <threshold>-1.4024140000401530e-05</threshold>
            <left_val>5.5845892429351807e-01</left_val>
            <right_val>-6.8347960710525513e-01</right_val></_></_>
        <_>
          <!-- tree 2 -->
          <_>
            <!-- root node -->
            <feature>
              <rects>
                <_>
                  3 3 8 8 -1.</_>
                <_>
                  3 3 4 4 2.</_>
                <_>
                  7 7 4 4 2.</_></rects>
              <tilted>0</tilted></feature>
            <threshold>-1.6948699485510588e-03</threshold>
            <left_val>6.8952387571334839e-01</left_val>
            <right_val>-8.1445068120956421e-01</right_val></_></_></trees>
      <stage_threshold>-8.3049851655960083e-01</stage_threshold>
      <parent>2</parent>
      <next>-1</next></_>
    <_>
      <!-- stage 4 -->
      <trees>
        <_>
          <!-- tree 0 -->
          <_>
            <!-- root node -->
            <feature>
              <rects>
                <_>
                  6 0 27 36 -1.</_>
                <_>
                  6 18 27 18 2.</_></rects>
              <tilted>0</tilted></feature>
            <threshold>-4.9845409393310547e-01</threshold>
            <left_val>7.7220791578292847e-01</left_val>
            <right_val>-8.2827502489089966e-01</right_val></_></_>
        <_>
          <!-- tree 1 -->
          <_>
            <!-- root node -->
            <feature>
              <rects>
                <_>
                  24 24 6 2 -1.</_>
                <_>
                  24 25 6 1 2.</_></rects>
              <tilted>0</tilted></feature>
            <threshold>-1.2998399324715137e-04</threshold>
            <left_val>5.2352017164230347e-01</left_val>
            <right_val>-7.5903528928756714e-01</right_val></_></_>
        <_>
          <!-- tree 2 -->
          <_>
            <!-- root node -->
            <feature>
              <rects>
                <_>
                  1 24 2 8 -1.</_>
                <_>
                  1 24 1 4 2.</_>
                <_>
                  2 28 1 4 2.</_></rects>
              <tilted>0</tilted></feature>
            <threshold>3.7080948823131621e-04</threshold>
            <left_val>-6.1484360694885254e-01</left_val>
            <right_val>8.1988620758056641e-01</right_val></_></_></trees>
      <stage_threshold>-9.1959828138351440e-01</stage_threshold>
      <parent>3</parent>
      <next>-1</next></_>
    <_>
      <!-- stage 5 -->
      <trees>
        <_>
          <!-- tree 0 -->
          <_>
            <!-- root node -->
            <feature>
              <rects>
                <_>
                  9 39 2 1 -1.</_>
                <_>
                  10 39 1 1 2.</_></rects>
              <tilted>0</tilted></feature>
            <threshold>-1.8743900000117719e-05</threshold>
            <left_val>7.0883208513259888e-01</left_val>
            <right_val>-8.9647352695465088e-01</right_val></_></_>
        <_>
          <!-- tree 1 -->
          <_>
            <!-- root node -->
            <feature>
              <rects>
                <_>
                  24 22 1 2 -1.</_>
                <_>
                  24 23 1 1 2.</_></rects>
              <tilted>0</tilted></feature>
            <threshold>-1.7046470020432025e-05</threshold>
            <left_val>4.8474478721618652e-01</left_val>
            <right_val>-7.7693182229995728e-01</right_val></_></_>
        <_>
          <!-- tree 2 -->
          <_>
            <!-- root node -->
            <feature>
              <rects>
                <_>
                  2 16 1 2 -1.</_>
                <_>
                  2 17 1 1 2.</_></rects>
              <tilted>0</tilted></feature>
            <threshold>-2.5502929929643869e-05</threshold>
            <left_val>5.8617132902145386e-01</left_val>
            <right_val>-8.1581211090087891e-01</right_val></_></_></trees>
      <stage_threshold>-1.0872340202331543e+00</stage_threshold>
      <parent>4</parent>
      <next>-1</next></_>
    <_>
      <!-- stage 6 -->
      <trees>
        <_>
          <!-- tree 0 -->
          <_>
            <!-- root node -->
            <feature>
              <rects>
                <_>
                  0 38 39 2 -1.</_>
                <_>
                  13 38 13 2 3.</_></rects>
              <tilted>0</tilted></feature>
            <threshold>-2.3816820234060287e-02</threshold>
            <left_val>7.0111161470413208e-01</left_val>
            <right_val>-8.8375049829483032e-01</right_val></_></_>
        <_>
          <!-- tree 1 -->
          <_>
            <!-- root node -->
            <feature>
              <rects>
                <_>
                  21 0 13 34 -1.</_>
                <_>
                  21 17 13 17 2.</_></rects>
              <tilted>0</tilted></feature>
            <threshold>-2.1721020340919495e-01</threshold>
            <left_val>6.7817032337188721e-01</left_val>
            <right_val>-6.1688202619552612e-01</right_val></_></_>
        <_>
          <!-- tree 2 -->
          <_>
            <!-- root node -->
            <feature>
              <rects>
                <_>
                  14 28 2 2 -1.</_>
                <_>
                  14 29 2 1 2.</_></rects>
              <tilted>0</tilted></feature>
            <threshold>-2.1011030185036361e-05</threshold>
            <left_val>5.4636269807815552e-01</left_val>
            <right_val>-8.1666040420532227e-01</right_val></_></_>
        <_>
          <!-- tree 3 -->
          <_>
            <!-- root node -->
            <feature>
              <rects>
                <_>
                  28 37 8 3 -1.</_>
                <_>
                  28 38 8 1 3.</_></rects>
              <tilted>0</tilted></feature>
            <threshold>-6.8190311139915138e-05</threshold>
            <left_val>2.3035219311714172e-01</left_val>
            <right_val>-3.9731380343437195e-01</right_val></_></_>
        <_>
          <!-- tree 4 -->
          <_>
            <!-- root node -->
            <feature>
              <rects>
                <_>
                  4 37 8 3 -1.</_>
                <_>
                  4 38 8 1 3.</_></rects>
              <tilted>0</tilted></feature>
            <threshold>-2.1150859538465738e-04</threshold>
            <left_val>5.6661039590835571e-01</left_val>
            <right_val>-7.0052152872085571e-01</right_val></_></_></trees>
      <stage_threshold>-1.5203299522399902e+00</stage_threshold>
      <parent>5</parent>
      <next>-1</next></_>
    <_>
      <!-- stage 7 -->
      <trees>
        <_>
          <!-- tree 0 -->
          <_>
            <!-- root node -->
            <feature>
              <rects>
                <_>
                  0 29 10 5 -1.</_>
                <_>
                  5 29 5 5 2.</_></rects>
              <tilted>0</tilted></feature>
            <threshold>-1.6268350183963776e-02</threshold>
            <left_val>7.7647888660430908e-01</left_val>
            <right_val>-6.9648742675781250e-01</right_val></_></_>
        <_>
          <!-- tree 1 -->
          <_>
            <!-- root node -->
            <feature>
              <rects>
                <_>
                  16 0 12 40 -1.</_>
                <_>
                  16 20 12 20 2.</_></rects>
              <tilted>0</tilted></feature>
            <threshold>-2.7847358584403992e-01</threshold>
            <left_val>7.1653592586517334e-01</left_val>
            <right_val>-5.6386518478393555e-01</right_val></_></_>
        <_>
          <!-- tree 2 -->
          <_>
            <!-- root node -->
            <feature>
              <rects>
                <_>
                  19 34 1 2 -1.</_>
                <_>
                  19 35 1 1 2.</_></rects>
              <tilted>0</tilted></feature>
            <threshold>-1.4801010365772527e-05</threshold>
            <left_val>6.1625939607620239e-01</left_val>
            <right_val>-7.6326161623001099e-01</right_val></_></_>
        <_>
          <!-- tree 3 -->
          <_>
            <!-- root node -->
            <feature>
              <rects>
                <_>
                  29 1 2 6 -1.</_>
                <_>
                  30 1 1 3 2.</_>
                <_>
                  29 4 1 3 2.</_></rects>
              <tilted>0</tilted></feature>
            <threshold>-3.0058730771997944e-05</threshold>
            <left_val>3.6257371306419373e-01</left_val>
            <right_val>-4.9618428945541382e-01</right_val></_></_>
        <_>
          <!-- tree 4 -->
          <_>
            <!-- root node -->
            <feature>
              <rects>
                <_>
                  8 11 1 2 -1.</_>
                <_>
                  8 12 1 1 2.</_></rects>
              <tilted>0</tilted></feature>
            <threshold>-1.9267270545242354e-05</threshold>
            <left_val>4.9576550722122192e-01</left_val>
            <right_val>-7.3020339012145996e-01</right_val></_></_>
        <_>
          <!-- tree 5 -->
          <_>
            <!-- root node -->
            <feature>
              <rects>
                <_>
                  1 21 38 6 -1.</_>
                <_>
                  20 21 19 3 2.</_>
                <_>
                  1 24 19 3 2.</_></rects>
              <tilted>0</tilted></feature>
            <threshold>3.1696769874542952e-03</threshold>
            <left_val>3.7679928541183472e-01</left_val>
            <right_val>-8.9346897602081299e-01</right_val></_></_></trees>
      <stage_threshold>-1.6472339630126953e+00</stage_threshold>
      <parent>6</parent>
      <next>-1</next></_>
    <_>
      <!-- stage 8 -->
      <trees>
        <_>
          <!-- tree 0 -->
          <_>
            <!-- root node -->
            <feature>
              <rects>
                <_>
                  0 9 6 31 -1.</_>
                <_>
                  3 9 3 31 2.</_></rects>
              <tilted>0</tilted></feature>
            <threshold>-3.3227570354938507e-02</threshold>
            <left_val>8.4269672632217407e-01</left_val>
            <right_val>-7.3290312290191650e-01</right_val></_></_>
        <_>
          <!-- tree 1 -->
          <_>
            <!-- root node -->
            <feature>
              <rects>
                <_>
                  9 0 23 6 -1.</_>
                <_>
                  9 2 23 2 3.</_></rects>
              <tilted>0</tilted></feature>
            <threshold>3.0915250536054373e-03</threshold>
            <left_val>-6.1105710268020630e-01</left_val>
            <right_val>6.3371980190277100e-01</right_val></_></_>
        <_>
          <!-- tree 2 -->
          <_>
            <!-- root node -->
            <feature>
              <rects>
                <_>
                  0 18 16 22 -1.</_>
                <_>
                  0 18 8 11 2.</_>
                <_>
                  8 29 8 11 2.</_></rects>
              <tilted>0</tilted></feature>
            <threshold>-2.3444209247827530e-02</threshold>
            <left_val>5.0856208801269531e-01</left_val>
            <right_val>-6.8984198570251465e-01</right_val></_></_>
        <_>
          <!-- tree 3 -->
          <_>
            <!-- root node -->
            <feature>
              <rects>
                <_>
                  22 24 6 3 -1.</_>
                <_>
                  24 24 2 3 3.</_></rects>
              <tilted>0</tilted></feature>
            <threshold>4.0910320240072906e-04</threshold>
            <left_val>1.5360529720783234e-01</left_val>
            <right_val>-9.3420010805130005e-01</right_val></_></_>
        <_>
          <!-- tree 4 -->
          <_>
            <!-- root node -->
            <feature>
              <rects>
                <_>
                  2 13 6 6 -1.</_>
                <_>
                  2 15 6 2 3.</_></rects>
              <tilted>0</tilted></feature>
            <threshold>4.6989310067147017e-04</threshold>
            <left_val>4.1510000824928284e-01</left_val>
            <right_val>-9.1217482089996338e-01</right_val></_></_></trees>
      <stage_threshold>-1.4650969505310059e+00</stage_threshold>
      <parent>7</parent>
      <next>-1</next></_>
    <_>
      <!-- stage 9 -->
      <trees>
        <_>
          <!-- tree 0 -->
          <_>
            <!-- root node -->
            <feature>
              <rects>
                <_>
                  6 0 16 34 -1.</_>
                <_>
                  6 17 16 17 2.</_></rects>
              <tilted>0</tilted></feature>
            <threshold>-2.7285671234130859e-01</threshold>
            <left_val>6.1381238698959351e-01</left_val>
            <right_val>-8.4394007921218872e-01</right_val></_></_>
        <_>
          <!-- tree 1 -->
          <_>
            <!-- root node -->
            <feature>
              <rects>
                <_>
                  25 22 14 18 -1.</_>
                <_>
                  32 22 7 9 2.</_>
                <_>
                  25 31 7 9 2.</_></rects>
              <tilted>0</tilted></feature>
            <threshold>-1.8852230161428452e-02</threshold>
            <left_val>7.1508461236953735e-01</left_val>
            <right_val>-6.9142019748687744e-01</right_val></_></_>
        <_>
          <!-- tree 2 -->
          <_>
            <!-- root node -->
            <feature>
              <rects>
                <_>
                  0 3 8 1 -1.</_>
                <_>
                  4 3 4 1 2.</_></rects>
              <tilted>0</tilted></feature>
            <threshold>2.3052870528772473e-04</threshold>
            <left_val>3.6187660694122314e-01</left_val>
            <right_val>-9.3054878711700439e-01</right_val></_></_>
        <_>
          <!-- tree 3 -->
          <_>
            <!-- root node -->
            <feature>
              <rects>
                <_>
                  28 1 4 6 -1.</_>
                <_>
                  28 3 4 2 3.</_></rects>
              <tilted>0</tilted></feature>
            <threshold>7.0965441409498453e-04</threshold>
            <left_val>-5.2218800783157349e-01</left_val>
            <right_val>4.5129150152206421e-01</right_val></_></_>
        <_>
          <!-- tree 4 -->
          <_>
            <!-- root node -->
            <feature>
              <rects>
                <_>
                  1 22 14 18 -1.</_>
                <_>
                  1 22 7 9 2.</_>
                <_>
                  8 31 7 9 2.</_></rects>
              <tilted>0</tilted></feature>
            <threshold>-1.5607769601047039e-02</threshold>
            <left_val>5.0692540407180786e-01</left_val>
            <right_val>-7.8165137767791748e-01</right_val></_></_></trees>
      <stage_threshold>-1.5038440227508545e+00</stage_threshold>
      <parent>8</parent>
      <next>-1</next></_>
    <_>
      <!-- stage 10 -->
      <trees>
        <_>
          <!-- tree 0 -->
          <_>
            <!-- root node -->
            <feature>
              <rects>
                <_>
                  0 0 4 24 -1.</_>
                <_>
                  0 0 2 12 2.</_>
                <_>
                  2 12 2 12 2.</_></rects>
              <tilted>0</tilted></feature>
            <threshold>-6.9506238214671612e-03</threshold>
            <left_val>7.8014552593231201e-01</left_val>
            <right_val>-6.7059481143951416e-01</right_val></_></_>
        <_>
          <!-- tree 1 -->
          <_>
            <!-- root node -->
            <feature>
              <rects>
                <_>
                  26 22 1 2 -1.</_>
                <_>
                  26 23 1 1 2.</_></rects>
              <tilted>0</tilted></feature>
            <threshold>-1.6607569705229253e-05</threshold>
            <left_val>4.0693300962448120e-01</left_val>
            <right_val>-6.9613778591156006e-01</right_val></_></_>
        <_>
          <!-- tree 2 -->
          <_>
            <!-- root node -->
            <feature>
              <rects>
                <_>
                  10 1 1 6 -1.</_>
                <_>
                  10 3 1 2 3.</_></rects>
              <tilted>0</tilted></feature>
            <threshold>1.7623549501877278e-04</threshold>
            <left_val>-6.1193418502807617e-01</left_val>
            <right_val>5.7494062185287476e-01</right_val></_></_>
        <_>
          <!-- tree 3 -->
          <_>
            <!-- root node -->
            <feature>
              <rects>
                <_>
                  33 32 4 2 -1.</_>
                <_>
                  35 32 2 1 2.</_>
                <_>
                  33 33 2 1 2.</_></rects>
              <tilted>0</tilted></feature>
            <threshold>1.7012719763442874e-04</threshold>
            <left_val>-5.6626808643341064e-01</left_val>
            <right_val>7.4888962507247925e-01</right_val></_></_>
        <_>
          <!-- tree 4 -->
          <_>
            <!-- root node -->
            <feature>
              <rects>
                <_>
                  10 24 1 2 -1.</_>
                <_>
                  10 25 1 1 2.</_></rects>
              <tilted>0</tilted></feature>
            <threshold>-1.7274520359933376e-05</threshold>
            <left_val>4.5237028598785400e-01</left_val>
            <right_val>-8.2577830553054810e-01</right_val></_></_></trees>
      <stage_threshold>-9.8949378728866577e-01</stage_threshold>
      <parent>9</parent>
      <next>-1</next></_>
    <_>
      <!-- stage 11 -->
      <trees>
        <_>
          <!-- tree 0 -->
          <_>
            <!-- root node -->
            <feature>
              <rects>
                <_>
                  0 22 39 18 -1.</_>
                <_>
                  13 22 13 18 3.</_></rects>
              <tilted>0</tilted></feature>
            <threshold>-1.8921780586242676e-01</threshold>
            <left_val>7.5547730922698975e-01</left_val>
            <right_val>-6.5790730714797974e-01</right_val></_></_>
        <_>
          <!-- tree 1 -->
          <_>
            <!-- root node -->
            <feature>
              <rects>
                <_>
                  11 0 18 2 -1.</_>
                <_>
                  11 1 18 1 2.</_></rects>
              <tilted>0</tilted></feature>
            <threshold>1.8652950529940426e-05</threshold>
            <left_val>-6.5998047590255737e-01</left_val>
            <right_val>6.1205500364303589e-01</right_val></_></_>
        <_>
          <!-- tree 2 -->
          <_>
            <!-- root node -->
            <feature>
              <rects>
                <_>
                  12 5 16 2 -1.</_>
                <_>
                  12 6 16 1 2.</_></rects>
              <tilted>0</tilted></feature>
            <threshold>-2.2417010040953755e-04</threshold>
            <left_val>3.5779368877410889e-01</left_val>
            <right_val>-8.7937867641448975e-01</right_val></_></_>
        <_>
          <!-- tree 3 -->
          <_>
            <!-- root node -->
            <feature>
              <rects>
                <_>
                  16 0 24 1 -1.</_>
                <_>
                  24 0 8 1 3.</_></rects>
              <tilted>0</tilted></feature>
            <threshold>8.7008037371560931e-04</threshold>
            <left_val>1.4961199462413788e-01</left_val>
            <right_val>-8.2541471719741821e-01</right_val></_></_>
        <_>
          <!-- tree 4 -->
          <_>
            <!-- root node -->
            <feature>
              <rects>
                <_>
                  11 16 14 4 -1.</_>
                <_>
                  11 18 14 2 2.</_></rects>
              <tilted>0</tilted></feature>
            <threshold>-1.8769339658319950e-03</threshold>
            <left_val>3.3536660671234131e-01</left_val>
            <right_val>-8.5099107027053833e-01</right_val></_></_></trees>
      <stage_threshold>-1.4501420259475708e+00</stage_threshold>
      <parent>10</parent>
      <next>-1</next></_>
    <_>
      <!-- stage 12 -->
      <trees>
        <_>
          <!-- tree 0 -->
          <_>
            <!-- root node -->
            <feature>
              <rects>
                <_>
                  0 25 4 10 -1.</_>
                <_>
                  0 25 2 5 2.</_>
                <_>
                  2 30 2 5 2.</_></rects>
              <tilted>0</tilted></feature>
            <threshold>2.5450079701840878e-03</threshold>
            <left_val>-6.4920300245285034e-01</left_val>
            <right_val>8.3295607566833496e-01</right_val></_></_>
        <_>
          <!-- tree 1 -->
          <_>
            <!-- root node -->
            <feature>
              <rects>
                <_>
                  31 0 4 12 -1.</_>
                <_>
                  31 4 4 4 3.</_></rects>
              <tilted>0</tilted></feature>
            <threshold>3.3127691131085157e-03</threshold>
            <left_val>-6.5573072433471680e-01</left_val>
            <right_val>7.1535581350326538e-01</right_val></_></_>
        <_>
          <!-- tree 2 -->
          <_>
            <!-- root node -->
            <feature>
              <rects>
                <_>
                  6 0 3 12 -1.</_>
                <_>
                  6 4 3 4 3.</_></rects>
              <tilted>0</tilted></feature>
            <threshold>1.0149059817194939e-03</threshold>
            <left_val>-8.3625048398971558e-01</left_val>
            <right_val>4.9159848690032959e-01</right_val></_></_>
        <_>
          <!-- tree 3 -->
          <_>
            <!-- root node -->
            <feature>
              <rects>
                <_>
                  33 2 6 38 -1.</_>
                <_>
                  36 2 3 19 2.</_>
                <_>
                  33 21 3 19 2.</_></rects>
              <tilted>0</tilted></feature>
            <threshold>-8.4906164556741714e-03</threshold>
            <left_val>5.8133447170257568e-01</left_val>
            <right_val>-7.3070031404495239e-01</right_val></_></_>
        <_>
          <!-- tree 4 -->
          <_>
            <!-- root node -->
            <feature>
              <rects>
                <_>
                  6 25 12 4 -1.</_>
                <_>
                  6 27 12 2 2.</_></rects>
              <tilted>0</tilted></feature>
            <threshold>-1.3655649963766336e-03</threshold>
            <left_val>3.9439260959625244e-01</left_val>
            <right_val>-9.5728927850723267e-01</right_val></_></_></trees>
      <stage_threshold>-1.1496429443359375e+00</stage_threshold>
      <parent>11</parent>
      <next>-1</next></_>
    <_>
      <!-- stage 13 -->
      <trees>
        <_>
          <!-- tree 0 -->
          <_>
            <!-- root node -->
            <feature>
              <rects>
                <_>
                  0 8 8 25 -1.</_>
                <_>
                  4 8 4 25 2.</_></rects>
              <tilted>0</tilted></feature>
            <threshold>-4.0222950279712677e-02</threshold>
            <left_val>7.6606029272079468e-01</left_val>
            <right_val>-6.7706340551376343e-01</right_val></_></_>
        <_>
          <!-- tree 1 -->
          <_>
            <!-- root node -->
            <feature>
              <rects>
                <_>
                  11 1 28 6 -1.</_>
                <_>
                  25 1 14 3 2.</_>
                <_>
                  11 4 14 3 2.</_></rects>
              <tilted>0</tilted></feature>
            <threshold>-2.4113790132105350e-03</threshold>
            <left_val>3.8764280080795288e-01</left_val>
            <right_val>-5.3363680839538574e-01</right_val></_></_>
        <_>
          <!-- tree 2 -->
          <_>
            <!-- root node -->
            <feature>
              <rects>
                <_>
                  1 0 32 8 -1.</_>
                <_>
                  1 0 16 4 2.</_>
                <_>
                  17 4 16 4 2.</_></rects>
              <tilted>0</tilted></feature>
            <threshold>1.9762848969548941e-03</threshold>
            <left_val>3.8991039991378784e-01</left_val>
            <right_val>-8.8415157794952393e-01</right_val></_></_>
        <_>
          <!-- tree 3 -->
          <_>
            <!-- root node -->
            <feature>
              <rects>
                <_>
                  20 22 14 6 -1.</_>
                <_>
                  27 22 7 3 2.</_>
                <_>
                  20 25 7 3 2.</_></rects>
              <tilted>0</tilted></feature>
            <threshold>5.6003371719270945e-04</threshold>
            <left_val>1.5840819478034973e-01</left_val>
            <right_val>-7.4674379825592041e-01</right_val></_></_>
        <_>
          <!-- tree 4 -->
          <_>
            <!-- root node -->
            <feature>
              <rects>
                <_>
                  11 33 6 1 -1.</_>
                <_>
                  13 33 2 1 3.</_></rects>
              <tilted>0</tilted></feature>
            <threshold>-1.4593880041502416e-04</threshold>
            <left_val>-9.0521979331970215e-01</left_val>
            <right_val>3.2306340336799622e-01</right_val></_></_></trees>
      <stage_threshold>-1.2444700002670288e+00</stage_threshold>
      <parent>12</parent>
      <next>-1</next></_>
    <_>
      <!-- stage 14 -->
      <trees>
        <_>
          <!-- tree 0 -->
          <_>
            <!-- root node -->
            <feature>
              <rects>
                <_>
                  1 11 13 24 -1.</_>
                <_>
                  1 19 13 8 3.</_></rects>
              <tilted>0</tilted></feature>
            <threshold>-3.2874651253223419e-02</threshold>
            <left_val>8.6378151178359985e-01</left_val>
            <right_val>-6.9999772310256958e-01</right_val></_></_>
        <_>
          <!-- tree 1 -->
          <_>
            <!-- root node -->
            <feature>
              <rects>
                <_>
                  34 32 1 3 -1.</_>
                <_>
                  34 33 1 1 3.</_></rects>
              <tilted>0</tilted></feature>
            <threshold>7.8816243330948055e-05</threshold>
            <left_val>-2.9510989785194397e-01</left_val>
            <right_val>5.0663542747497559e-01</right_val></_></_>
        <_>
          <!-- tree 2 -->
          <_>
            <!-- root node -->
            <feature>
              <rects>
                <_>
                  5 32 1 3 -1.</_>
                <_>
                  5 33 1 1 3.</_></rects>
              <tilted>0</tilted></feature>
            <threshold>5.9757439885288477e-05</threshold>
            <left_val>-4.8591428995132446e-01</left_val>
            <right_val>8.7671542167663574e-01</right_val></_></_>
        <_>
          <!-- tree 3 -->
          <_>
            <!-- root node -->
            <feature>
              <rects>
                <_>
                  36 1 4 9 -1.</_>
                <_>
                  36 4 4 3 3.</_></rects>
              <tilted>0</tilted></feature>
            <threshold>1.2993890559300780e-03</threshold>
            <left_val>3.9288321137428284e-01</left_val>
            <right_val>-9.5659410953521729e-01</right_val></_></_>
        <_>
          <!-- tree 4 -->
          <_>
            <!-- root node -->
            <feature>
              <rects>
                <_>
                  11 1 4 1 -1.</_>
                <_>
                  13 1 2 1 2.</_></rects>
              <tilted>0</tilted></feature>
            <threshold>1.7727410522638820e-05</threshold>
            <left_val>-7.2085791826248169e-01</left_val>
            <right_val>7.0358127355575562e-01</right_val></_></_></trees>
      <stage_threshold>-1.0072510242462158e+00</stage_threshold>
      <parent>13</parent>
      <next>-1</next></_>
    <_>
      <!-- stage 15 -->
      <trees>
        <_>
          <!-- tree 0 -->
          <_>
            <!-- root node -->
            <feature>
              <rects>
                <_>
                  6 15 2 21 -1.</_>
                <_>
                  7 15 1 21 2.</_></rects>
              <tilted>0</tilted></feature>
            <threshold>-1.1022189864888787e-03</threshold>
            <left_val>1.</left_val>
            <right_val>-6.2413358688354492e-01</right_val></_></_>
        <_>
          <!-- tree 1 -->
          <_>
            <!-- root node -->
            <feature>
              <rects>
                <_>
                  27 3 2 4 -1.</_>
                <_>
                  27 5 2 2 2.</_></rects>
              <tilted>0</tilted></feature>
            <threshold>-4.3252450996078551e-04</threshold>
            <left_val>4.8952141404151917e-01</left_val>
            <right_val>-4.9506148695945740e-01</right_val></_></_>
        <_>
          <!-- tree 2 -->
          <_>
            <!-- root node -->
            <feature>
              <rects>
                <_>
                  6 14 18 2 -1.</_>
                <_>
                  6 15 18 1 2.</_></rects>
              <tilted>0</tilted></feature>
            <threshold>-8.1202207366004586e-04</threshold>
            <left_val>8.0906242132186890e-01</left_val>
            <right_val>-6.9820427894592285e-01</right_val></_></_>
        <_>
          <!-- tree 3 -->
          <_>
            <!-- root node -->
            <feature>
              <rects>
                <_>
                  29 8 6 20 -1.</_>
                <_>
                  32 8 3 10 2.</_>
                <_>
                  29 18 3 10 2.</_></rects>
              <tilted>0</tilted></feature>
            <threshold>-2.2039751056581736e-03</threshold>
            <left_val>-5.8240801095962524e-01</left_val>
            <right_val>1.7172740399837494e-01</right_val></_></_>
        <_>
          <!-- tree 4 -->
          <_>
            <!-- root node -->
            <feature>
              <rects>
                <_>
                  6 6 9 8 -1.</_>
                <_>
                  9 6 3 8 3.</_></rects>
              <tilted>0</tilted></feature>
            <threshold>-3.5105778806610033e-05</threshold>
            <left_val>6.7137807607650757e-01</left_val>
            <right_val>-7.4392211437225342e-01</right_val></_></_>
        <_>
          <!-- tree 5 -->
          <_>
            <!-- root node -->
            <feature>
              <rects>
                <_>
                  20 0 8 4 -1.</_>
                <_>
                  24 0 4 2 2.</_>
                <_>
                  20 2 4 2 2.</_></rects>
              <tilted>0</tilted></feature>
            <threshold>-7.0525740738958120e-04</threshold>
            <left_val>5.2262991666793823e-01</left_val>
            <right_val>-3.5324540734291077e-01</right_val></_></_></trees>
      <stage_threshold>-1.3275389671325684e+00</stage_threshold>
      <parent>14</parent>
      <next>-1</next></_></stages></Ball>
</opencv_storage>
