<?xml version="1.0"?>
<opencv_storage>
<!-- Automatically converted from Data, window size = 40x40 -->
<Ball type_id="opencv-haar-classifier">
  <size>
    40 40</size>
  <stages>
    <_>
      <!-- stage 0 -->
      <trees>
        <_>
          <!-- tree 0 -->
          <_>
            <!-- root node -->
            <feature>
              <rects>
                <_>
                  0 26 27 14 -1.</_>
                <_>
                  9 26 9 14 3.</_></rects>
              <tilted>0</tilted></feature>
            <threshold>-3.5777561366558075e-02</threshold>
            <left_val>9.3769139051437378e-01</left_val>
            <right_val>-8.8346928358078003e-01</right_val></_></_>
        <_>
          <!-- tree 1 -->
          <_>
            <!-- root node -->
            <feature>
              <rects>
                <_>
                  35 12 4 28 -1.</_>
                <_>
                  35 12 2 28 2.</_></rects>
              <tilted>0</tilted></feature>
            <threshold>-5.0637531094253063e-03</threshold>
            <left_val>8.5901457071304321e-01</left_val>
            <right_val>-5.5411118268966675e-01</right_val></_></_>
        <_>
          <!-- tree 2 -->
          <_>
            <!-- root node -->
            <feature>
              <rects>
                <_>
                  5 10 2 1 -1.</_>
                <_>
                  6 10 1 1 2.</_></rects>
              <tilted>0</tilted></feature>
            <threshold>-1.9735780369956046e-05</threshold>
            <left_val>6.9527047872543335e-01</left_val>
            <right_val>-8.6907839775085449e-01</right_val></_></_></trees>
      <stage_threshold>-7.4231010675430298e-01</stage_threshold>
      <parent>-1</parent>
      <next>-1</next></_>
    <_>
      <!-- stage 1 -->
      <trees>
        <_>
          <!-- tree 0 -->
          <_>
            <!-- root node -->
            <feature>
              <rects>
                <_>
                  0 38 39 2 -1.</_>
                <_>
                  13 38 13 2 3.</_></rects>
              <tilted>0</tilted></feature>
            <threshold>-2.3547409102320671e-02</threshold>
            <left_val>8.3751028776168823e-01</left_val>
            <right_val>-8.7715941667556763e-01</right_val></_></_>
        <_>
          <!-- tree 1 -->
          <_>
            <!-- root node -->
            <feature>
              <rects>
                <_>
                  37 23 2 1 -1.</_>
                <_>
                  37 23 1 1 2.</_></rects>
              <tilted>0</tilted></feature>
            <threshold>-8.9009481598623097e-05</threshold>
            <left_val>7.6596677303314209e-01</left_val>
            <right_val>-5.5133157968521118e-01</right_val></_></_>
        <_>
          <!-- tree 2 -->
          <_>
            <!-- root node -->
            <feature>
              <rects>
                <_>
                  1 23 2 2 -1.</_>
                <_>
                  2 23 1 2 2.</_></rects>
              <tilted>0</tilted></feature>
            <threshold>-6.9548288593068719e-05</threshold>
            <left_val>6.5901911258697510e-01</left_val>
            <right_val>-9.1068047285079956e-01</right_val></_></_></trees>
      <stage_threshold>-1.0218729972839355e+00</stage_threshold>
      <parent>0</parent>
      <next>-1</next></_>
    <_>
      <!-- stage 2 -->
      <trees>
        <_>
          <!-- tree 0 -->
          <_>
            <!-- root node -->
            <feature>
              <rects>
                <_>
                  4 0 29 36 -1.</_>
                <_>
                  4 18 29 18 2.</_></rects>
              <tilted>0</tilted></feature>
            <threshold>-5.2834808826446533e-01</threshold>
            <left_val>8.9236557483673096e-01</left_val>
            <right_val>-8.6235409975051880e-01</right_val></_></_>
        <_>
          <!-- tree 1 -->
          <_>
            <!-- root node -->
            <feature>
              <rects>
                <_>
                  38 37 2 2 -1.</_>
                <_>
                  38 37 1 2 2.</_></rects>
              <tilted>0</tilted></feature>
            <threshold>-9.1927431640215218e-06</threshold>
            <left_val>5.7635927200317383e-01</left_val>
            <right_val>-4.5431968569755554e-01</right_val></_></_>
        <_>
          <!-- tree 2 -->
          <_>
            <!-- root node -->
            <feature>
              <rects>
                <_>
                  0 37 2 2 -1.</_>
                <_>
                  1 37 1 2 2.</_></rects>
              <tilted>0</tilted></feature>
            <threshold>-9.3471426225733012e-06</threshold>
            <left_val>7.2838008403778076e-01</left_val>
            <right_val>-9.4166839122772217e-01</right_val></_></_></trees>
      <stage_threshold>-5.8829367160797119e-01</stage_threshold>
      <parent>1</parent>
      <next>-1</next></_>
    <_>
      <!-- stage 3 -->
      <trees>
        <_>
          <!-- tree 0 -->
          <_>
            <!-- root node -->
            <feature>
              <rects>
                <_>
                  10 0 19 38 -1.</_>
                <_>
                  10 19 19 19 2.</_></rects>
              <tilted>0</tilted></feature>
            <threshold>-3.8257890939712524e-01</threshold>
            <left_val>7.1641737222671509e-01</left_val>
            <right_val>-8.4721922874450684e-01</right_val></_></_>
        <_>
          <!-- tree 1 -->
          <_>
            <!-- root node -->
            <feature>
              <rects>
                <_>
                  38 11 2 12 -1.</_>
                <_>
                  39 11 1 6 2.</_>
                <_>
                  38 17 1 6 2.</_></rects>
              <tilted>0</tilted></feature>
            <threshold>-3.7878411239944398e-04</threshold>
            <left_val>7.2827351093292236e-01</left_val>
            <right_val>-7.7256488800048828e-01</right_val></_></_>
        <_>
          <!-- tree 2 -->
          <_>
            <!-- root node -->
            <feature>
              <rects>
                <_>
                  0 11 2 12 -1.</_>
                <_>
                  0 11 1 6 2.</_>
                <_>
                  1 17 1 6 2.</_></rects>
              <tilted>0</tilted></feature>
            <threshold>-7.8708078945055604e-04</threshold>
            <left_val>7.8545182943344116e-01</left_val>
            <right_val>-7.4400097131729126e-01</right_val></_></_></trees>
      <stage_threshold>-8.6294668912887573e-01</stage_threshold>
      <parent>2</parent>
      <next>-1</next></_>
    <_>
      <!-- stage 4 -->
      <trees>
        <_>
          <!-- tree 0 -->
          <_>
            <!-- root node -->
            <feature>
              <rects>
                <_>
                  0 36 12 4 -1.</_>
                <_>
                  6 36 6 4 2.</_></rects>
              <tilted>0</tilted></feature>
            <threshold>-1.1551690287888050e-02</threshold>
            <left_val>6.8508237600326538e-01</left_val>
            <right_val>-8.4378409385681152e-01</right_val></_></_>
        <_>
          <!-- tree 1 -->
          <_>
            <!-- root node -->
            <feature>
              <rects>
                <_>
                  36 9 2 2 -1.</_>
                <_>
                  37 9 1 1 2.</_>
                <_>
                  36 10 1 1 2.</_></rects>
              <tilted>0</tilted></feature>
            <threshold>-9.3427388492273167e-06</threshold>
            <left_val>5.6832790374755859e-01</left_val>
            <right_val>-5.6549030542373657e-01</right_val></_></_>
        <_>
          <!-- tree 2 -->
          <_>
            <!-- root node -->
            <feature>
              <rects>
                <_>
                  2 9 2 2 -1.</_>
                <_>
                  2 9 1 1 2.</_>
                <_>
                  3 10 1 1 2.</_></rects>
              <tilted>0</tilted></feature>
            <threshold>-1.8040640497929417e-05</threshold>
            <left_val>7.0619392395019531e-01</left_val>
            <right_val>-7.2438418865203857e-01</right_val></_></_></trees>
      <stage_threshold>-9.9984037876129150e-01</stage_threshold>
      <parent>3</parent>
      <next>-1</next></_>
    <_>
      <!-- stage 5 -->
      <trees>
        <_>
          <!-- tree 0 -->
          <_>
            <!-- root node -->
            <feature>
              <rects>
                <_>
                  0 8 6 31 -1.</_>
                <_>
                  3 8 3 31 2.</_></rects>
              <tilted>0</tilted></feature>
            <threshold>-3.2821640372276306e-02</threshold>
            <left_val>9.0630668401718140e-01</left_val>
            <right_val>-6.8412667512893677e-01</right_val></_></_>
        <_>
          <!-- tree 1 -->
          <_>
            <!-- root node -->
            <feature>
              <rects>
                <_>
                  11 1 18 38 -1.</_>
                <_>
                  11 20 18 19 2.</_></rects>
              <tilted>0</tilted></feature>
            <threshold>-3.8862219452857971e-01</threshold>
            <left_val>7.8781801462173462e-01</left_val>
            <right_val>-5.2305388450622559e-01</right_val></_></_>
        <_>
          <!-- tree 2 -->
          <_>
            <!-- root node -->
            <feature>
              <rects>
                <_>
                  9 1 2 6 -1.</_>
                <_>
                  9 1 1 3 2.</_>
                <_>
                  10 4 1 3 2.</_></rects>
              <tilted>0</tilted></feature>
            <threshold>-8.7764447016525082e-06</threshold>
            <left_val>5.1945662498474121e-01</left_val>
            <right_val>-9.0289402008056641e-01</right_val></_></_></trees>
      <stage_threshold>-6.8772417306900024e-01</stage_threshold>
      <parent>4</parent>
      <next>-1</next></_>
    <_>
      <!-- stage 6 -->
      <trees>
        <_>
          <!-- tree 0 -->
          <_>
            <!-- root node -->
            <feature>
              <rects>
                <_>
                  0 39 39 1 -1.</_>
                <_>
                  13 39 13 1 3.</_></rects>
              <tilted>0</tilted></feature>
            <threshold>-1.5093809925019741e-02</threshold>
            <left_val>6.8924039602279663e-01</left_val>
            <right_val>-7.6750838756561279e-01</right_val></_></_>
        <_>
          <!-- tree 1 -->
          <_>
            <!-- root node -->
            <feature>
              <rects>
                <_>
                  20 0 18 32 -1.</_>
                <_>
                  20 16 18 16 2.</_></rects>
              <tilted>0</tilted></feature>
            <threshold>-1.8092249333858490e-01</threshold>
            <left_val>4.8392000794410706e-01</left_val>
            <right_val>-6.5348327159881592e-01</right_val></_></_>
        <_>
          <!-- tree 2 -->
          <_>
            <!-- root node -->
            <feature>
              <rects>
                <_>
                  7 32 2 6 -1.</_>
                <_>
                  7 34 2 2 3.</_></rects>
              <tilted>0</tilted></feature>
            <threshold>5.1016017096117139e-04</threshold>
            <left_val>-6.3552671670913696e-01</left_val>
            <right_val>6.1983990669250488e-01</right_val></_></_></trees>
      <stage_threshold>-8.0115181207656860e-01</stage_threshold>
      <parent>5</parent>
      <next>-1</next></_></stages></Ball>
</opencv_storage>
